{
  "input_shape": [
    28,
    28
  ],
  "preprocess": {
    "scale": 255.0
  },
  "layers": [
    {
      "type": "dense",
      "units": 128,
      "activation": "relu",
      "W": [
        [
          -0.07952119410037994,
          -0.030480969697237015,
          -0.06135767698287964,
          -0.04753899574279785,
          0.030057579278945923,
          0.061735205352306366,
          0.001374468207359314,
          -0.022990629076957703,
          0.030614756047725677,
          -0.05603896826505661,
          0.06048627942800522,
          -0.03307085111737251,
          -0.05487548187375069,
          0.023839116096496582,
          0.07163252681493759,
          0.03856700658798218,
          -0.028116438537836075,
          -0.04158100113272667,
          -0.049384504556655884,
          -0.051254596561193466,
          0.021766453981399536,
          -0.07283766567707062,
          -0.04708164185285568,
          -0.07949037104845047,
          -0.010377489030361176,
          -0.01321275532245636,
          0.022540293633937836,
          -0.0017010942101478577,
          -0.07585272192955017,
          -0.008333779871463776,
          -0.06057614088058472,
          0.018237680196762085,
          -0.03938289359211922,
          0.06774286180734634,
          0.04502091556787491,
          -0.01971452683210373,
          -0.047457173466682434,
          0.026584304869174957,
          0.039684221148490906,
          0.0298885777592659,
          0.033083073794841766,
          -0.06549988687038422,
          -0.06853415817022324,
          -0.07463912665843964,
          0.07339190691709518,
          0.05988272279500961,
          -0.06880712509155273,
          -0.007981553673744202,
          0.06731235235929489,
          -0.070313461124897,
          -0.07312878966331482,
          -0.018440328538417816,
          0.02146495133638382,
          -0.015995599329471588,
          0.061747483909130096,
          0.033525168895721436,
          0.007424436509609222,
          0.058115385472774506,
          0.0013218671083450317,
          0.03761063516139984,
          -0.03811822459101677,
          -0.07199335843324661,
          0.019095219671726227,
          0.004511937499046326,
          -0.08099804073572159,
          0.07166969031095505,
          0.06934159249067307,
          0.06522520631551743,
          0.009151019155979156,
          0.03939177095890045,
          -0.0030854269862174988,
          -0.051469676196575165,
          -0.0492822639644146,
          -0.02026580274105072,
          0.04470866173505783,
          0.054098524153232574,
          -0.05968257784843445,
          0.04306289553642273,
          -0.06782504916191101,
          -0.037845246493816376,
          -0.062264587730169296,
          -0.05540861934423447,
          -0.010258466005325317,
          0.05558977276086807,
          0.005607679486274719,
          0.07120969146490097,
          0.03463868796825409,
          0.07929127663373947,
          -0.024301879107952118,
          -0.029530029743909836,
          0.028524048626422882,
          -0.0003986433148384094,
          0.008971057832241058,
          0.04844961315393448,
          -0.005488075315952301,
          0.06871125847101212,
          0.08108227699995041,
          -0.052456047385931015,
          -0.04159509763121605,
          -0.04328986629843712,
          -0.058759503066539764,
          0.008379615843296051,
          -0.04896163567900658,
          0.03600141406059265,
          0.05808121711015701,
          0.06395643204450607,
          0.07244651764631271,
          -0.014590516686439514,
          -0.06073958799242973,
          0.01871734857559204,
          0.029989078640937805,
          -0.06266339868307114,
          -0.010264694690704346,
          -0.04958131164312363,
          -0.07750821858644485,
          -0.07359801232814789,
          -0.06105039268732071,
          -0.02738311141729355,
          0.06361254304647446,
          0.034579068422317505,
          -0.07001882046461105,
          0.07619559019804001,
          -0.03750999644398689,
          -0.0403435043990612,
          -0.056915901601314545,
          -0.024520982056856155,
          0.060992397367954254,
          0.04184630513191223
        ],
        [
          0.0377005934715271,
          -0.01834237575531006,
          0.04906747490167618,
          0.027339018881320953,
          0.07057962566614151,
          0.0027668848633766174,
          0.021073199808597565,
          0.01275121420621872,
          0.04327811300754547,
          -0.044815581291913986,
          -0.0519150011241436,
          0.05341041833162308,
          -0.02865307405591011,
          -0.07970082759857178,
          -0.06870131939649582,
          0.02424616366624832,
          0.056713350117206573,
          0.07573021203279495,
          0.07912575453519821,
          -0.06016957014799118,
          0.013305604457855225,
          0.05024368315935135,
          -0.07992292940616608,
          0.04494064301252365,
          -0.02202783152461052,
          -0.006802283227443695,
          0.06711596995592117,
          -0.07110217213630676,
          -0.012008525431156158,
          0.036707691848278046,
          0.0477447584271431,
          0.036811456084251404,
          -0.06755360960960388,
          0.0626554861664772,
          -0.07103187590837479,
          -0.06871965527534485,
          -0.014660380780696869,
          -0.05074874684214592,
          -0.00011179596185684204,
          0.05595993250608444,
          0.009951181709766388,
          0.030339665710926056,
          0.038286663591861725,
          -0.04737359285354614,
          0.04988320916891098,
          0.0133017897605896,
          0.06970969587564468,
          0.0324338898062706,
          -0.048677537590265274,
          0.0536700114607811,
          0.014636717736721039,
          0.03906719386577606,
          0.06595652550458908,
          -0.047639552503824234,
          -0.059089913964271545,
          -0.05745755136013031,
          -0.009413748979568481,
          -0.05302950739860535,
          -0.03908968344330788,
          0.04008069634437561,
          -0.010231256484985352,
          0.008794359862804413,
          -0.02631464973092079,
          0.043712444603443146,
          -0.06857376545667648,
          -0.03033135086297989,
          0.018479734659194946,
          -0.0013640299439430237,
          -0.011216096580028534,
          -0.004613772034645081,
          0.031200990080833435,
          -0.016280338168144226,
          -0.05184485763311386,
          0.005764111876487732,
          0.01932692527770996,
          -0.027332384139299393,
          -0.008730582892894745,
          -0.025746800005435944,
          0.009129844605922699,
          0.07309975475072861,
          -0.03702652081847191,
          -0.013259127736091614,
          0.054474733769893646,
          0.0031763166189193726,
          -0.0006454139947891235,
          -0.027631472796201706,
          0.030613265931606293,
          -0.04723400995135307,
          0.010251075029373169,
          0.022170431911945343,
          0.0002430453896522522,
          0.002360239624977112,
          0.061841271817684174,
          -0.07607430219650269,
          0.07929376512765884,
          -0.07859529554843903,
          -0.046228572726249695,
          0.008638456463813782,
          -0.02646440640091896,
          -0.054023511707782745,
          0.03471799194812775,
          0.0093594491481781,
          0.06751098483800888,
          0.026588089764118195,
          0.012761823832988739,
          0.011799342930316925,
          -0.020609445869922638,
          -0.03735455498099327,
          -0.05949845910072327,
          0.0671774223446846,
          0.0049861520528793335,
          0.01732659339904785,
          0.043229199945926666,
          0.025300011038780212,
          0.031865864992141724,
          -0.06359776854515076,
          -0.06538806855678558,
          -0.01844177395105362,
          -0.012633129954338074,
          -0.03776965290307999,
          -0.016709104180336,
          -0.0383031964302063,
          0.04620780795812607,
          0.08054057508707047,
          -0.07773669809103012,
          -0.015615545213222504,
          0.07952343672513962,
          -0.05278609320521355
        ],
        [
          0.07741249352693558,
          0.003064095973968506,
          0.054956890642642975,
          0.07756973057985306,
          0.03952127695083618,
          0.03215789049863815,
          -0.008932419121265411,
          0.07861422747373581,
          -0.026713307946920395,
          -0.03068583831191063,
          -0.04179379716515541,
          0.011128395795822144,
          0.08017916232347488,
          -0.03408617153763771,
          0.061419643461704254,
          -0.07448556274175644,
          0.011276163160800934,
          0.07963927835226059,
          -0.04752938449382782,
          0.030675239861011505,
          0.03745032101869583,
          -0.04963066428899765,
          -0.0028486475348472595,
          -0.07799192517995834,
          -0.05599505454301834,
          -0.0010600835084915161,
          -0.036776069551706314,
          -0.02513764426112175,
          -0.012317217886447906,
          0.04944128543138504,
          0.017297394573688507,
          0.058898694813251495,
          -0.02118348330259323,
          -0.048716794699430466,
          -0.07517831772565842,
          -0.04606918618083,
          -0.027442440390586853,
          -0.06805693358182907,
          -0.004133887588977814,
          0.018387146294116974,
          0.06779517978429794,
          -0.007703550159931183,
          -0.013458877801895142,
          -0.06586462259292603,
          0.04858709126710892,
          0.06838978081941605,
          0.015389882028102875,
          -0.01843440532684326,
          0.01330476999282837,
          0.04356580227613449,
          0.02994903177022934,
          0.03475987911224365,
          -0.04087948426604271,
          0.08104714006185532,
          -0.004675149917602539,
          -0.05418018996715546,
          -0.07373614609241486,
          0.026515401899814606,
          -0.007222913205623627,
          0.05642551928758621,
          -0.07986930757761002,
          -0.03377341106534004,
          0.02764083445072174,
          -0.011394493281841278,
          -0.03232597932219505,
          0.07173632830381393,
          -0.04382368177175522,
          -0.07798004895448685,
          0.06330931931734085,
          0.017833739519119263,
          0.06301447004079819,
          0.062239713966846466,
          -0.016448847949504852,
          0.012538738548755646,
          0.015903040766716003,
          -0.06137554720044136,
          -0.03149153292179108,
          0.05170809477567673,
          -0.004697658121585846,
          -0.00430694967508316,
          -0.050899431109428406,
          -0.034321460872888565,
          0.07628845423460007,
          0.015660271048545837,
          0.027181878685951233,
          0.008868835866451263,
          -0.06596622616052628,
          -0.012777432799339294,
          0.005057819187641144,
          0.0044425129890441895,
          0.031082257628440857,
          -0.008225604891777039,
          -0.016368865966796875,
          -0.0668564885854721,
          -0.028763476759195328,
          -0.043833330273628235,
          0.06497669965028763,
          0.03411591053009033,
          -0.05201960355043411,
          -0.0344848670065403,
          0.03972763568162918,
          -0.023848455399274826,
          0.016776129603385925,
          -0.012040451169013977,
          -0.07263637334108353,
          -0.020678404718637466,
          0.0524769201874733,
          0.0276879221200943,
          -0.015229932963848114,
          -0.050189562141895294,
          0.05100973695516586,
          0.0410873144865036,
          0.04646850377321243,
          -0.06788662075996399,
          0.01155196875333786,
          -0.04953576996922493,
          -0.006353311240673065,
          -0.03970655798912048,
          0.03434354066848755,
          -0.054426658898591995,
          -0.04288383945822716,
          0.006207689642906189,
          0.03659875690937042,
          0.06461561471223831,
          0.01832205057144165,
          -0.0393826998770237,
          0.02291160821914673,
          -0.03597130626440048
        ],
        [
          -0.03683951869606972,
          0.03778674453496933,
          -0.04792148619890213,
          -0.03802841901779175,
          0.048623137176036835,
          0.028809890151023865,
          0.02674088627099991,
          0.042461566627025604,
          0.004254832863807678,
          0.07821839302778244,
          0.07205069810152054,
          0.07030165940523148,
          -0.01563553512096405,
          0.016413941979408264,
          0.03527124226093292,
          -0.0469459667801857,
          0.016767270863056183,
          -0.060359783470630646,
          -0.05863585323095322,
          -0.07899854332208633,
          0.01795738935470581,
          -0.057636816054582596,
          0.019774921238422394,
          0.05944637209177017,
          0.06527519971132278,
          -0.029621168971061707,
          0.03937949240207672,
          -0.07533145695924759,
          -0.046282604336738586,
          0.037951841950416565,
          0.04941583424806595,
          0.038536377251148224,
          0.04936230927705765,
          0.04814974218606949,
          0.06710689514875412,
          -0.06036019325256348,
          -0.0475437305867672,
          0.049442775547504425,
          0.016188032925128937,
          -0.0063931867480278015,
          0.043834082782268524,
          -0.013631917536258698,
          0.04301578551530838,
          -0.07560836523771286,
          -0.016637146472930908,
          0.024419188499450684,
          0.028230085968971252,
          0.07494295388460159,
          0.06369935721158981,
          0.049607984721660614,
          -0.07719945907592773,
          0.07876753062009811,
          0.0180182084441185,
          0.06515198200941086,
          -0.07829706370830536,
          -0.06944714486598969,
          -0.058841243386268616,
          0.02369355410337448,
          -0.038778454065322876,
          -0.07408943772315979,
          -0.013863995671272278,
          -0.012698262929916382,
          -0.015708692371845245,
          0.0073798224329948425,
          -0.04992489516735077,
          -0.0028862804174423218,
          -0.03860516473650932,
          -0.07413538545370102,
          -0.05881844460964203,
          0.07369142025709152,
          0.015100233256816864,
          0.05504148453474045,
          -0.07335369288921356,
          0.037093646824359894,
          -0.003519780933856964,
          -0.05264154076576233,
          -0.06006412208080292,
          0.019106417894363403,
          0.07989821583032608,
          -0.055811554193496704,
          0.04046589881181717,
          -0.0048041194677352905,
          0.03639015555381775,
          -0.07608366012573242,
          0.03230196237564087,
          -0.07472173869609833,
          -0.047795072197914124,
          0.07373995333909988,
          0.023909062147140503,
          -0.048858948051929474,
          0.038542523980140686,
          0.004159994423389435,
          -0.06271180510520935,
          -0.06545624136924744,
          0.07641924172639847,
          0.038338564336299896,
          0.03869587928056717,
          -0.07818285375833511,
          -0.05708526819944382,
          -0.046008214354515076,
          -0.06337760388851166,
          0.04184705764055252,
          0.05737745016813278,
          0.07138515263795853,
          -0.04356108605861664,
          0.027698978781700134,
          0.06117207556962967,
          0.024202480912208557,
          -0.06980161368846893,
          0.059766985476017,
          0.027526699006557465,
          0.06803610175848007,
          0.03620404005050659,
          -0.01629503071308136,
          -0.06325376033782959,
          -0.016114473342895508,
          -0.018478035926818848,
          -0.03191840648651123,
          -0.028766244649887085,
          0.07442875951528549,
          -0.04473312199115753,
          0.06350790709257126,
          -0.06271816790103912,
          0.04743494838476181,
          -0.03033280000090599,
          0.06355277448892593,
          -0.07469507306814194,
          0.007399141788482666
        ],
        [
          0.028461918234825134,
          -0.014661625027656555,
          -0.07405135780572891,
          -0.05315914750099182,
          -0.027754928916692734,
          -0.0708482414484024,
          -0.0711197480559349,
          -0.07469087839126587,
          0.0109952911734581,
          0.018147774040699005,
          0.03773971647024155,
          -0.00807960331439972,
          0.07872215658426285,
          -0.055670708417892456,
          -0.017390646040439606,
          -0.05332893878221512,
          -0.01849254220724106,
          0.020491287112236023,
          -0.023607656359672546,
          -0.05866130068898201,
          0.07852088660001755,
          0.04192539304494858,
          0.07830997556447983,
          0.045068852603435516,
          -0.04087755084037781,
          -0.032527852803468704,
          0.03131375461816788,
          0.06152646988630295,
          0.030936777591705322,
          -0.07466575503349304,
          0.006245635449886322,
          0.03252081573009491,
          -0.0557730495929718,
          0.074522964656353,
          0.06167558580636978,
          -0.06065686047077179,
          0.002317175269126892,
          -0.04277192801237106,
          0.03431442379951477,
          -0.05186855047941208,
          -0.06866388022899628,
          0.05378872901201248,
          -0.002342022955417633,
          0.012010164558887482,
          0.02168523520231247,
          -0.02899126335978508,
          -0.05337612330913544,
          0.05276801437139511,
          0.007844388484954834,
          -0.058245472609996796,
          0.05213996022939682,
          -0.04055491089820862,
          -0.05413319915533066,
          -0.06021704897284508,
          0.07022694498300552,
          0.06159103661775589,
          0.001763671636581421,
          -0.018905874341726303,
          0.052376680076122284,
          -0.07360789179801941,
          0.021786607801914215,
          -0.047713443636894226,
          0.011757276952266693,
          0.008172310888767242,
          0.03286464512348175,
          0.049642808735370636,
          -0.05889873951673508,
          -0.07465765625238419,
          -0.02976013347506523,
          0.008756749331951141,
          0.06480786949396133,
          0.03549090772867203,
          0.044824130833148956,
          0.04468666762113571,
          -0.033094581216573715,
          0.04394683986902237,
          0.05673915892839432,
          0.07768473774194717,
          0.04426471143960953,
          -0.06068043410778046,
          -0.07892467081546783,
          0.022580638527870178,
          -0.04132625460624695,
          0.023924417793750763,
          -0.028148788958787918,
          -0.03495018556714058,
          0.01070353388786316,
          0.018287979066371918,
          -0.07275108993053436,
          0.03864888846874237,
          -0.06966191530227661,
          -0.07400751858949661,
          0.0723794624209404,
          -0.067650206387043,
          0.008131757378578186,
          0.04837966710329056,
          -0.061227746307849884,
          0.009282812476158142,
          0.055444277822971344,
          -0.013363637030124664,
          -0.029031507670879364,
          -0.031901851296424866,
          -0.06194546818733215,
          0.02323918044567108,
          0.03363947570323944,
          -0.011111423373222351,
          0.040094561874866486,
          0.08012498170137405,
          0.025449395179748535,
          0.015057556331157684,
          -0.011834152042865753,
          0.02829223871231079,
          0.03857091814279556,
          -0.05158862844109535,
          0.05822383612394333,
          -0.06020016595721245,
          -0.02670329064130783,
          -0.03573046624660492,
          -0.05046665668487549,
          -0.008304812014102936,
          -0.002062581479549408,
          0.08095460385084152,
          -0.04518327862024307,
          -0.05464208871126175,
          0.01724235713481903,
          0.07883501797914505,
          0.009715661406517029,
          0.051892317831516266
        ],
        [
          0.005985051393508911,
          -0.06070077419281006,
          0.03026643395423889,
          -0.005856737494468689,
          0.04860558360815048,
          -0.05006175488233566,
          -0.07412921637296677,
          -0.006925180554389954,
          0.060222871601581573,
          0.046534620225429535,
          0.0014453232288360596,
          0.04602792114019394,
          -0.038940124213695526,
          0.04822879284620285,
          0.006219334900379181,
          -0.004763640463352203,
          -0.05382479354739189,
          -0.06571914255619049,
          -0.07382018864154816,
          -0.03776965290307999,
          0.07332047075033188,
          -0.08047761023044586,
          -0.03491698205471039,
          0.03128428012132645,
          0.01334681361913681,
          0.021747618913650513,
          0.03455381095409393,
          0.05488685518503189,
          -0.00988568365573883,
          0.07951187342405319,
          -0.004309229552745819,
          0.07657694071531296,
          0.0348660871386528,
          -0.050648339092731476,
          0.02599245309829712,
          -0.028404325246810913,
          0.023555830121040344,
          0.05170721560716629,
          -0.07367250323295593,
          0.028525926172733307,
          -0.0719352662563324,
          -0.07665974646806717,
          -0.04375406354665756,
          -0.037993475794792175,
          0.029234133660793304,
          0.06737222522497177,
          0.013898395001888275,
          -0.06805967539548874,
          -0.026980623602867126,
          -0.01802155375480652,
          0.05243127793073654,
          0.07717175036668777,
          -0.01518271118402481,
          -0.03656696528196335,
          0.03173941373825073,
          0.018936529755592346,
          0.039734847843647,
          0.07404906302690506,
          0.03727059066295624,
          0.009529352188110352,
          -0.04592853784561157,
          0.01091156154870987,
          0.06456714123487473,
          -0.009895101189613342,
          -0.020306628197431564,
          -0.060391075909137726,
          0.04003705084323883,
          -0.024342607706785202,
          -0.05021079257130623,
          0.018247291445732117,
          0.025299236178398132,
          0.03630702197551727,
          -0.03977445513010025,
          0.07770844548940659,
          -0.04117700457572937,
          -0.002118222415447235,
          -0.04139573872089386,
          -0.001715831458568573,
          0.0273783877491951,
          -0.04062483832240105,
          0.001413397490978241,
          0.08104278892278671,
          0.043863557279109955,
          0.04231208562850952,
          -0.0075372010469436646,
          0.0192544087767601,
          0.04627693444490433,
          0.04536733776330948,
          -0.06258361041545868,
          0.030715331435203552,
          0.06643805652856827,
          0.06482859700918198,
          -0.008985579013824463,
          -0.06082388386130333,
          0.020805731415748596,
          -0.04342757537961006,
          -0.05987594276666641,
          -0.07738856971263885,
          -0.05014912411570549,
          0.04153261333703995,
          -0.07579861581325531,
          0.02067403495311737,
          0.05685373395681381,
          -0.08073487132787704,
          -0.08083295077085495,
          0.07494062930345535,
          -0.02388245239853859,
          -0.04524839296936989,
          0.06812631338834763,
          -0.03982461616396904,
          -0.0531141497194767,
          0.07481534034013748,
          0.03623697906732559,
          0.018261581659317017,
          0.001232430338859558,
          0.06427232176065445,
          0.0035314857959747314,
          0.07274723798036575,
          -0.04199951887130737,
          0.03822624683380127,
          0.016185618937015533,
          -0.023992910981178284,
          -0.03385898470878601,
          -0.053061917424201965,
          -0.02402704581618309,
          0.06133703142404556,
          -0.05804001912474632,
          0.044793494045734406
        ],
        [
          0.04704894870519638,
          -0.02636951208114624,
          -0.025429263710975647,
          0.07276066392660141,
          -0.056770190596580505,
          0.05345291644334793,
          -0.011366955935955048,
          0.06307994574308395,
          0.0075047314167022705,
          -0.03074255958199501,
          -0.02047918364405632,
          -0.05007863789796829,
          -0.07040276378393173,
          0.02927592396736145,
          -0.0028293654322624207,
          -0.05276922881603241,
          0.028898321092128754,
          -0.0022265538573265076,
          0.04059720039367676,
          -0.04902315139770508,
          0.03424309939146042,
          0.03205414116382599,
          0.06588735431432724,
          0.05000288039445877,
          0.0494425967335701,
          0.0255826935172081,
          0.04658365994691849,
          0.03781978040933609,
          -0.057399459183216095,
          -0.04483557865023613,
          0.020718105137348175,
          -0.0699637234210968,
          0.07015161961317062,
          -0.0628679022192955,
          0.03146088123321533,
          -0.038031648844480515,
          0.007161244750022888,
          -0.0010762736201286316,
          0.001962624490261078,
          0.07750935107469559,
          -0.0023326650261878967,
          -0.07059891521930695,
          0.032924868166446686,
          0.03337154537439346,
          -0.0007399767637252808,
          0.00420764833688736,
          0.07553137093782425,
          -0.07729998230934143,
          -0.06527016311883926,
          0.06715752929449081,
          -0.05010754615068436,
          -0.021907199174165726,
          0.04943829029798508,
          -0.06799427419900894,
          -0.03457510098814964,
          0.06065436452627182,
          0.06314266473054886,
          0.04376254975795746,
          0.07924384623765945,
          -0.04711801931262016,
          -0.005500994622707367,
          -0.004257716238498688,
          -0.004763022065162659,
          0.02042987197637558,
          -0.016311563551425934,
          -0.06412570178508759,
          -0.06679239869117737,
          0.07136207073926926,
          -0.052605144679546356,
          -0.07910076528787613,
          -0.06777115166187286,
          0.007758155465126038,
          -0.06974988430738449,
          0.06010501831769943,
          0.07698497921228409,
          -0.06535851955413818,
          -0.05901265889406204,
          0.06670261174440384,
          0.048712022602558136,
          -0.009262792766094208,
          -0.04483621567487717,
          0.014744080603122711,
          0.03806891292333603,
          -0.010766170918941498,
          -0.03565754368901253,
          -0.06894318759441376,
          0.00637885183095932,
          -0.0035231709480285645,
          -0.011369138956069946,
          -0.06812215596437454,
          0.07694061845541,
          0.0017995089292526245,
          0.061585597693920135,
          -0.027939453721046448,
          -0.07130257785320282,
          -0.0751434862613678,
          0.03466854244470596,
          -0.02242099866271019,
          -0.0778653547167778,
          0.056949786841869354,
          -0.030188418924808502,
          0.03774169087409973,
          -0.02028653398156166,
          -0.04335136339068413,
          -0.04300609603524208,
          0.002631537616252899,
          0.05692049115896225,
          0.07764200121164322,
          -0.04249829426407814,
          -0.007077276706695557,
          -0.01576363295316696,
          -0.02851184830069542,
          0.02707725763320923,
          0.030385248363018036,
          -0.011628754436969757,
          -0.01207711547613144,
          0.02482631802558899,
          -0.07481564581394196,
          0.03803141415119171,
          0.05367753654718399,
          -0.035239700227975845,
          0.02255147695541382,
          0.004166841506958008,
          0.03815877437591553,
          -0.04022670164704323,
          0.008972696959972382,
          -0.08047372102737427,
          0.00668913871049881
        ],
        [
          -0.003051064908504486,
          -0.04159809648990631,
          -0.07174330949783325,
          -0.045117009431123734,
          0.03413327783346176,
          -0.06539838016033173,
          0.07729000598192215,
          -0.038871124386787415,
          -0.011513635516166687,
          -0.001269325613975525,
          -0.05291260778903961,
          -0.032670143991708755,
          0.045238085091114044,
          0.04887662082910538,
          0.01112445443868637,
          -0.013374365866184235,
          -0.07201159000396729,
          -0.028750386089086533,
          -0.02119920402765274,
          0.028050899505615234,
          -0.022418078035116196,
          0.06948769837617874,
          -0.07654131948947906,
          0.0466935858130455,
          -0.0758921355009079,
          0.06208949536085129,
          0.05026840418577194,
          0.054126136004924774,
          0.019266381859779358,
          -0.014594405889511108,
          0.00652439147233963,
          0.03869767487049103,
          0.019513621926307678,
          -0.0008239671587944031,
          -0.0207490473985672,
          0.02179586887359619,
          0.04410035163164139,
          -0.04768403246998787,
          0.01982571929693222,
          -0.02357536181807518,
          -0.024499770253896713,
          0.06067010015249252,
          0.07860421389341354,
          -0.05715838819742203,
          -0.025480609387159348,
          0.013092048466205597,
          0.029068075120449066,
          0.06268545240163803,
          -0.04216818884015083,
          0.057531051337718964,
          -0.049449365586042404,
          -0.05228583142161369,
          -0.07311507314443588,
          -0.019179996103048325,
          -0.008259311318397522,
          -0.07100985199213028,
          0.04332539439201355,
          0.06036064773797989,
          0.012625262141227722,
          -0.05558968335390091,
          0.0040139928460121155,
          -0.07702046632766724,
          0.019923187792301178,
          -0.010979168117046356,
          -0.05605097860097885,
          0.06978993862867355,
          0.023632369935512543,
          -0.06280534714460373,
          -0.03770649433135986,
          0.04995649307966232,
          -0.0062048062682151794,
          -0.012856990098953247,
          -0.004155836999416351,
          -0.05344649776816368,
          0.02444501966238022,
          -0.032141122967004776,
          0.004986010491847992,
          -0.05571574717760086,
          0.05083731561899185,
          0.05437619239091873,
          -0.057928264141082764,
          -0.00705467164516449,
          0.0018843263387680054,
          0.03861858695745468,
          0.03582420200109482,
          0.022807762026786804,
          0.032758116722106934,
          -0.02467317506670952,
          -0.017339341342449188,
          -0.05157000571489334,
          -0.02272387593984604,
          -0.026411477476358414,
          0.06524275988340378,
          0.007576338946819305,
          -0.03458448126912117,
          0.025680892169475555,
          0.07031937688589096,
          -0.000009998679161071777,
          0.019454948604106903,
          0.06907642632722855,
          -0.07281976193189621,
          0.080854631960392,
          -0.01969517022371292,
          0.002802252769470215,
          0.012329734861850739,
          -0.00378330796957016,
          -0.022007081657648087,
          -0.017138376832008362,
          -0.014153622090816498,
          -0.047886621206998825,
          0.02063499391078949,
          0.045582883059978485,
          0.06534012407064438,
          -0.06196426600217819,
          -0.06337636709213257,
          0.06257715076208115,
          -0.06988012790679932,
          -0.0002302601933479309,
          -0.015181608498096466,
          0.06750596314668655,
          -0.07912664115428925,
          0.06672827154397964,
          0.01895400881767273,
          0.029036320745944977,
          -0.05366312712430954,
          0.006905652582645416,
          -0.07578360289335251,
          0.025262586772441864
        ],
        [
          -0.049277372658252716,
          0.025899745523929596,
          0.0793362632393837,
          0.05386119335889816,
          -0.005487531423568726,
          0.053520239889621735,
          0.032589249312877655,
          0.05173530429601669,
          -0.025225169956684113,
          -0.0029158666729927063,
          -0.0743001252412796,
          0.04220409691333771,
          -0.041290152817964554,
          0.06036978214979172,
          -0.0621374174952507,
          0.06776795536279678,
          -0.06371130794286728,
          0.0016271620988845825,
          0.058272041380405426,
          0.0010632574558258057,
          0.026479892432689667,
          -0.06569290161132812,
          -0.002063646912574768,
          0.010029345750808716,
          -0.025928542017936707,
          0.016213633120059967,
          -0.0036587119102478027,
          0.0015575438737869263,
          0.06624036282300949,
          0.05038236826658249,
          -0.036006733775138855,
          -0.018230468034744263,
          -0.06024431437253952,
          0.0761151984333992,
          -0.009404174983501434,
          -0.013808220624923706,
          0.04817677289247513,
          -0.07385702431201935,
          0.05239506810903549,
          -0.07429670542478561,
          0.04102722555398941,
          -0.02137814089655876,
          0.013590380549430847,
          -0.00789952278137207,
          0.08083704859018326,
          0.07074526697397232,
          -0.05197868123650551,
          0.016853421926498413,
          -0.0036043301224708557,
          -0.015625059604644775,
          -0.07655543833971024,
          0.03714531660079956,
          0.05719994753599167,
          0.03787032514810562,
          -0.04214513674378395,
          -0.0212966687977314,
          0.023854099214076996,
          0.06382080167531967,
          0.06095842272043228,
          0.0687384381890297,
          0.000027671456336975098,
          -0.03449391946196556,
          0.041436582803726196,
          -0.05233696103096008,
          0.008138716220855713,
          -0.0002114027738571167,
          0.07132624834775925,
          -0.011899590492248535,
          -0.04565643146634102,
          0.006980277597904205,
          -0.031168349087238312,
          -0.023144327104091644,
          0.0652884915471077,
          0.06319490820169449,
          -0.025070499628782272,
          0.024436146020889282,
          -0.038365427404642105,
          -0.02236027643084526,
          0.007056236267089844,
          -0.06458964943885803,
          0.010278463363647461,
          0.02481142431497574,
          -0.02334652841091156,
          -0.012795649468898773,
          0.0018454939126968384,
          -0.020864982157945633,
          0.06741640716791153,
          -0.03668572008609772,
          0.008710876107215881,
          0.07268940657377243,
          0.02692396193742752,
          -0.057737335562705994,
          0.001960285007953644,
          0.052167169749736786,
          -0.030719120055437088,
          -0.034777380526065826,
          -0.022062700241804123,
          -0.026291094720363617,
          -0.06950055062770844,
          0.0639326348900795,
          0.07585906237363815,
          0.045047856867313385,
          0.009524308145046234,
          0.05899006873369217,
          -0.07400316745042801,
          -0.008314833045005798,
          0.04376935958862305,
          0.05470234900712967,
          0.04122591018676758,
          -0.05723119527101517,
          -0.029397156089544296,
          0.03379365801811218,
          -0.024949386715888977,
          -0.06776521354913712,
          0.06519410759210587,
          -0.024740707129240036,
          0.06544322520494461,
          -0.0749569684267044,
          0.044874973595142365,
          -0.0529828816652298,
          0.04818796366453171,
          0.039820440113544464,
          0.0729953870177269,
          0.07846694439649582,
          0.000733792781829834,
          0.0331287682056427,
          -0.04900669306516647,
          0.05874840170145035
        ],
        [
          0.06696256250143051,
          -0.026039697229862213,
          -0.07357894629240036,
          0.03203658014535904,
          -0.011033795773983002,
          0.015267759561538696,
          -0.0360884964466095,
          -0.004298172891139984,
          -0.004037603735923767,
          0.07640054076910019,
          0.03998856991529465,
          0.07685718685388565,
          -0.04191025346517563,
          -0.01789598912000656,
          -0.055263370275497437,
          0.05022048205137253,
          0.010477587580680847,
          0.06992845982313156,
          0.045358143746852875,
          0.03095419704914093,
          -0.07832382619380951,
          -0.003144077956676483,
          -0.03694901242852211,
          -0.02503126487135887,
          -0.061108119785785675,
          0.013735145330429077,
          -0.03746660053730011,
          -0.031086008995771408,
          -0.02671700343489647,
          0.0019016340374946594,
          0.048326991498470306,
          0.019774645566940308,
          -0.04567936435341835,
          -0.07507317513227463,
          -0.055891167372465134,
          -0.07292161881923676,
          0.010753683745861053,
          0.07649102061986923,
          0.04973747581243515,
          0.039921194314956665,
          -0.08085832744836807,
          -0.07112711668014526,
          -0.059358835220336914,
          0.0652870163321495,
          0.008124232292175293,
          0.06797615438699722,
          0.028294965624809265,
          0.07432418316602707,
          0.01677636057138443,
          0.06527470797300339,
          -0.05739443004131317,
          0.059651173651218414,
          0.05948939174413681,
          -0.026346538215875626,
          0.04725741595029831,
          0.010097108781337738,
          0.06452486664056778,
          -0.005853742361068726,
          0.01616935431957245,
          0.07179092615842819,
          -0.07024712860584259,
          0.07132776826620102,
          0.06367181986570358,
          0.055926613509655,
          -0.026965849101543427,
          0.0727483257651329,
          -0.05123382806777954,
          -0.08006429672241211,
          0.0017730146646499634,
          -0.022262752056121826,
          -0.01945720985531807,
          -0.04123876988887787,
          0.05117643624544144,
          -0.022376231849193573,
          0.03982219845056534,
          0.02976416051387787,
          -0.06456363946199417,
          0.016437925398349762,
          -0.0030088871717453003,
          -0.01902250573039055,
          0.07676322013139725,
          -0.026781920343637466,
          -0.0009666234254837036,
          0.0633581355214119,
          -0.0647946372628212,
          -0.021228503435850143,
          -0.06426636874675751,
          -0.06359740346670151,
          -0.006588071584701538,
          -0.05441252142190933,
          0.032521992921829224,
          -0.00047260522842407227,
          -0.0020760223269462585,
          -0.07222495228052139,
          0.02248510718345642,
          0.0783807560801506,
          0.07738114148378372,
          0.07581906765699387,
          -0.012050412595272064,
          0.03583177924156189,
          0.02936416119337082,
          -0.0176437646150589,
          0.0646974965929985,
          -0.06352053582668304,
          -0.07171430438756943,
          -0.020893659442663193,
          0.034705035388469696,
          0.03117821365594864,
          -0.016540609300136566,
          0.07611458748579025,
          -0.07626814395189285,
          -0.04583260044455528,
          0.04192318767309189,
          0.06136419624090195,
          0.02355397492647171,
          -0.0166887566447258,
          -0.04979231208562851,
          -0.04897728189826012,
          0.07302511483430862,
          0.06793724745512009,
          0.033368952572345734,
          -0.04144124314188957,
          0.06601341813802719,
          0.024488724768161774,
          -0.0024520009756088257,
          -0.06831646710634232,
          -0.019432727247476578,
          0.044057659804821014
        ],
        [
          -0.006879717111587524,
          0.06305281072854996,
          -0.004802413284778595,
          0.06593985110521317,
          0.06499045342206955,
          0.007860958576202393,
          -0.0739428699016571,
          0.06825695186853409,
          -0.04667229205369949,
          0.05162126570940018,
          -0.06398018449544907,
          -0.02758573740720749,
          0.035774484276771545,
          -0.0520150363445282,
          -0.0015313252806663513,
          0.05464557558298111,
          -0.04899033531546593,
          0.028158828616142273,
          0.02983292192220688,
          -0.06343463063240051,
          -0.015282422304153442,
          0.04335969686508179,
          -0.07252011448144913,
          0.0477677658200264,
          0.0146465003490448,
          -0.05713200941681862,
          0.043060801923274994,
          0.07650750130414963,
          0.08077593892812729,
          -0.01657211035490036,
          -0.07053642719984055,
          0.04274754226207733,
          0.032680489122867584,
          0.028994552791118622,
          -0.07976741343736649,
          0.0603061243891716,
          0.026143372058868408,
          -0.006325386464595795,
          0.00677875429391861,
          0.04760817438364029,
          -0.05318517982959747,
          -0.05015312880277634,
          0.03532550483942032,
          0.07429604977369308,
          -0.05950568988919258,
          0.026808492839336395,
          -0.04997335746884346,
          -0.07094527781009674,
          0.07291287928819656,
          -0.019600100815296173,
          0.02207650989294052,
          -0.01359374076128006,
          0.004612378776073456,
          -0.0312635712325573,
          0.053248949348926544,
          -0.0015362948179244995,
          0.0016670376062393188,
          -0.013257600367069244,
          0.007623448967933655,
          -0.056299109011888504,
          0.07548979669809341,
          0.018106430768966675,
          0.05234626680612564,
          -0.011997595429420471,
          -0.014587074518203735,
          0.06081093102693558,
          -0.005619324743747711,
          0.008686840534210205,
          0.054508380591869354,
          -0.07765541970729828,
          0.0035677626729011536,
          0.024747706949710846,
          -0.036504290997982025,
          -0.055879950523376465,
          -0.042987823486328125,
          0.000509411096572876,
          -0.03893610090017319,
          -0.0035308673977851868,
          0.03442476689815521,
          0.0399618074297905,
          -0.0591873973608017,
          0.01882554590702057,
          -0.04350941628217697,
          0.06491472572088242,
          -0.029349543154239655,
          0.05175813287496567,
          0.05168312042951584,
          0.021244846284389496,
          -0.06037726625800133,
          0.02582620084285736,
          -0.01181318610906601,
          0.013751216232776642,
          -0.031322088092565536,
          0.05359106510877609,
          0.0643111988902092,
          -0.08039934933185577,
          0.07389750331640244,
          -0.04703260213136673,
          -0.057763926684856415,
          0.06488912552595139,
          -0.05980721116065979,
          0.028674311935901642,
          0.009208470582962036,
          -0.0062628015875816345,
          -0.044168755412101746,
          -0.050780944526195526,
          0.025595128536224365,
          0.031433843076229095,
          0.08068007975816727,
          -0.06355305761098862,
          0.015343859791755676,
          0.0740644708275795,
          -0.013288602232933044,
          -0.07660617679357529,
          -0.06956707686185837,
          -0.05823007598519325,
          -0.05968514829874039,
          -0.023741941899061203,
          0.057500697672367096,
          -0.03317713364958763,
          -0.06975804269313812,
          -0.061170369386672974,
          -0.07938013970851898,
          0.0607207790017128,
          -0.04540572687983513,
          0.06782924383878708,
          0.0009693503379821777,
          0.039804503321647644
        ],
        [
          0.006513774394989014,
          0.08049377053976059,
          0.06184849888086319,
          -0.043102845549583435,
          -0.08034446835517883,
          -0.03483784943819046,
          -0.003846794366836548,
          0.021182112395763397,
          0.05437307804822922,
          -0.004015423357486725,
          -0.011809282004833221,
          -0.02356046810746193,
          0.01582673192024231,
          -0.05419616401195526,
          0.01048009842634201,
          -0.054277271032333374,
          0.05629836767911911,
          0.04775301367044449,
          0.041249290108680725,
          0.06369171291589737,
          0.003109157085418701,
          -0.027011215686798096,
          0.005021519958972931,
          -0.07100530713796616,
          -0.038266975432634354,
          -0.07343260943889618,
          -0.07780861854553223,
          0.021295063197612762,
          -0.039632994681596756,
          -0.049493208527565,
          0.012464754283428192,
          0.00991203635931015,
          -0.00018719583749771118,
          -0.05537441000342369,
          -0.07743467390537262,
          -0.06617411226034164,
          -0.06972920894622803,
          -0.015215858817100525,
          -0.010320693254470825,
          -0.04477628692984581,
          -0.07520053535699844,
          -0.06498070806264877,
          0.003892548382282257,
          -0.02739032357931137,
          -0.02159333974123001,
          -0.00502440333366394,
          -0.048767246305942535,
          0.062268488109111786,
          0.0768367126584053,
          -0.011074230074882507,
          0.0004476606845855713,
          -0.015662260353565216,
          -0.0010513290762901306,
          -0.012493006885051727,
          -0.07291285693645477,
          -0.07017964124679565,
          -0.050898388028144836,
          -0.07703173905611038,
          -0.05926891043782234,
          -0.01630856841802597,
          0.02899576723575592,
          0.04578477889299393,
          0.048591725528240204,
          0.05445841699838638,
          -0.02028508484363556,
          0.06870443373918533,
          -0.02311128005385399,
          -0.021871425211429596,
          -0.021581966429948807,
          -0.001718170940876007,
          -0.057647705078125,
          -0.008270740509033203,
          0.07309895008802414,
          0.058785147964954376,
          -0.010419398546218872,
          -0.05307357758283615,
          0.007381007075309753,
          0.017080344259738922,
          0.020759589970111847,
          -0.030428756028413773,
          -0.06048206239938736,
          -0.041945718228816986,
          0.04312611371278763,
          0.007040649652481079,
          -0.03820555657148361,
          -0.0066850557923316956,
          0.06802637130022049,
          -0.06826703995466232,
          -0.07101994752883911,
          -0.0626969188451767,
          0.038936465978622437,
          -0.045661576092243195,
          -0.04066679999232292,
          -0.057527169585227966,
          0.029067322611808777,
          -0.010387606918811798,
          0.005893774330615997,
          -0.04147471487522125,
          0.048981644213199615,
          -0.0337400920689106,
          -0.04297565668821335,
          -0.032771360129117966,
          0.01705096662044525,
          0.02486851066350937,
          0.07964829355478287,
          0.013870857656002045,
          0.02949468046426773,
          0.05518002063035965,
          0.05507244914770126,
          0.03896777331829071,
          0.040748871862888336,
          0.027857668697834015,
          -0.07524198293685913,
          0.06985678523778915,
          0.038609087467193604,
          -0.03176363930106163,
          0.04917345196008682,
          0.028798922896385193,
          0.005176730453968048,
          -0.024632371962070465,
          -0.01932865008711815,
          0.06282005459070206,
          0.08002529293298721,
          -0.004908464848995209,
          0.006071917712688446,
          0.06979186087846756,
          0.043879590928554535,
          -0.06951018422842026
        ],
        [
          -0.08919265866279602,
          -0.009577509015798569,
          -0.011031492613255978,
          -0.01802702434360981,
          0.04250447079539299,
          -0.026837745681405067,
          0.05927639454603195,
          0.0398225374519825,
          -0.09437310695648193,
          0.0850958377122879,
          -0.053167037665843964,
          -0.05520648881793022,
          -0.020080262795090675,
          -0.010914400219917297,
          -0.028405144810676575,
          -0.05560955032706261,
          0.015411056578159332,
          -0.08468497544527054,
          0.01713944971561432,
          0.02858433686196804,
          -0.030906174331903458,
          0.06668444722890854,
          0.08855689316987991,
          -0.05495161935687065,
          -0.039049018174409866,
          -0.016312167048454285,
          0.048487164080142975,
          -0.01235122513025999,
          -0.01729188859462738,
          -0.028051607310771942,
          -0.02734466642141342,
          -0.04797051474452019,
          -0.019329532980918884,
          0.014630171470344067,
          0.004487450700253248,
          -0.060439374297857285,
          -0.0014372424921020865,
          0.06399039179086685,
          0.035380177199840546,
          0.04819133132696152,
          0.026400340721011162,
          0.029049154371023178,
          0.04887029528617859,
          0.0477956160902977,
          -0.02850719727575779,
          0.03553057834506035,
          0.06126217916607857,
          -0.038301654160022736,
          0.07144950330257416,
          0.015744009986519814,
          -0.025555111467838287,
          -0.046148717403411865,
          0.08731984347105026,
          -0.009248853661119938,
          0.06251141428947449,
          0.01317694503813982,
          0.012460657395422459,
          -0.030091969296336174,
          -0.031783655285835266,
          0.07934849709272385,
          -0.06220579892396927,
          0.06338948011398315,
          0.013219836167991161,
          -0.041606634855270386,
          -0.02223079279065132,
          0.014214162714779377,
          0.022903170436620712,
          -0.018121568486094475,
          0.07088559865951538,
          -0.038173217326402664,
          -0.02041786164045334,
          0.03634700924158096,
          -0.06725034862756729,
          0.045655857771635056,
          0.015369033440947533,
          -0.01966739632189274,
          -0.06157580390572548,
          0.04375886544585228,
          0.025730492547154427,
          0.04214543104171753,
          0.03772198036313057,
          0.08069974184036255,
          -0.0025747378822416067,
          0.07316099107265472,
          -0.009544451721012592,
          -0.004424860700964928,
          -0.025252828374505043,
          0.06726784259080887,
          0.012385004200041294,
          -0.031139131635427475,
          -0.07118449360132217,
          0.03304911404848099,
          0.026190729811787605,
          0.020429713651537895,
          -0.05309927091002464,
          -0.0701151192188263,
          0.062086090445518494,
          -0.019424835219979286,
          0.08722911775112152,
          0.05208124965429306,
          -0.003786869812756777,
          0.07907258719205856,
          0.005357035435736179,
          -0.09022229164838791,
          0.05220950394868851,
          0.04815524071455002,
          0.048045918345451355,
          -0.046308089047670364,
          -0.01575162634253502,
          -0.03498433902859688,
          -0.03606339544057846,
          0.0162761602550745,
          0.012902608141303062,
          0.040647413581609726,
          -0.031014040112495422,
          0.013445479795336723,
          -0.10138683766126633,
          -0.025133198127150536,
          -0.07438120990991592,
          0.002707026433199644,
          0.020094627514481544,
          0.03728203848004341,
          0.000010482979632797651,
          0.028626957908272743,
          0.04266970977187157,
          -0.03888941928744316,
          0.0049061463214457035,
          0.05974140018224716
        ],
        [
          -0.04626893252134323,
          0.006531444378197193,
          -0.048089977353811264,
          0.026394952088594437,
          0.09198050200939178,
          -0.04666469246149063,
          0.03890250623226166,
          0.04544637352228165,
          -0.05647173896431923,
          -0.0015444636810570955,
          -0.08232526481151581,
          -0.09436114132404327,
          0.059051115065813065,
          -0.020130127668380737,
          -0.025207998231053352,
          -0.047931719571352005,
          0.03501322492957115,
          -0.022493232041597366,
          -0.056544363498687744,
          0.04111776128411293,
          -0.021316273137927055,
          0.028764529153704643,
          -0.051150936633348465,
          -0.09338206797838211,
          0.07468172907829285,
          -0.07843241095542908,
          0.0055578649044036865,
          -0.024617159739136696,
          -0.04752753674983978,
          -0.07197902351617813,
          0.046831272542476654,
          0.09771011024713516,
          0.024677816778421402,
          -0.05455121025443077,
          0.00868318509310484,
          0.07100006937980652,
          0.019882215186953545,
          -0.03616246208548546,
          -0.017422286793589592,
          0.03670395910739899,
          0.07990601658821106,
          -0.042232442647218704,
          -0.053680241107940674,
          -0.08990774303674698,
          0.006605356466025114,
          0.015259957872331142,
          -0.026949996128678322,
          0.002111700363457203,
          -0.008597406558692455,
          -0.05814352259039879,
          0.021490653976798058,
          0.02938561886548996,
          0.047972653061151505,
          0.03520616888999939,
          0.08079422265291214,
          -0.04837552830576897,
          -0.02426779828965664,
          0.03413411229848862,
          0.04097042977809906,
          0.03826054558157921,
          0.044545985758304596,
          -0.02945663221180439,
          -0.09674116224050522,
          -0.051213040947914124,
          -0.08583535254001617,
          0.04807501286268234,
          0.040258295834064484,
          0.04065881669521332,
          -0.04026617482304573,
          0.09298217296600342,
          -0.0011798664927482605,
          -0.021620701998472214,
          0.06897144764661789,
          0.07985034584999084,
          -0.0004916139296256006,
          0.019671974703669548,
          -0.027753246948122978,
          -0.07248349487781525,
          0.04141296073794365,
          -0.07131771743297577,
          0.06049495190382004,
          -0.0389057919383049,
          0.03161121904850006,
          0.09618252515792847,
          0.02523921988904476,
          -0.024697571992874146,
          0.07727043330669403,
          0.09509652853012085,
          -0.03901631012558937,
          -0.04263497143983841,
          -0.005727225448936224,
          0.029049575328826904,
          -0.021022221073508263,
          0.03624599054455757,
          -0.028871217742562294,
          -0.0954340249300003,
          -0.02076290361583233,
          0.0844799280166626,
          0.06259512901306152,
          -0.07360853999853134,
          0.005227855406701565,
          -0.038668155670166016,
          0.026185791939496994,
          0.02368546463549137,
          0.011168891564011574,
          -0.00674545019865036,
          0.006335037760436535,
          -0.022467903792858124,
          0.01707647368311882,
          -0.061357736587524414,
          -0.023734478279948235,
          -0.10082034766674042,
          -0.03947323188185692,
          0.0732092335820198,
          -0.09525042772293091,
          0.04365925490856171,
          -0.06195804849267006,
          -0.0648859515786171,
          0.04770607501268387,
          -0.030970826745033264,
          0.06064886227250099,
          -0.040740661323070526,
          0.03230666741728783,
          -0.016323762014508247,
          -0.03613634780049324,
          0.07622174173593521,
          -0.08449435234069824,
          -0.05783385410904884
        ],
        [
          0.07689671963453293,
          -0.04913627356290817,
          0.030283644795417786,
          -0.018464021384716034,
          0.09053513407707214,
          -0.07142800837755203,
          -0.035934217274188995,
          0.02889486588537693,
          0.05138882249593735,
          0.011379573494195938,
          0.008517314679920673,
          0.06657568365335464,
          0.01622176170349121,
          -0.003955453634262085,
          -0.08056581020355225,
          0.07016554474830627,
          0.025375599041581154,
          -0.031430136412382126,
          -0.02804095484316349,
          -0.07511439919471741,
          -0.08069468289613724,
          0.009140601381659508,
          0.05347898602485657,
          0.038177378475666046,
          0.000812828540802002,
          -0.001990683376789093,
          0.015997551381587982,
          -0.03685617074370384,
          0.05335083603858948,
          -0.0641181543469429,
          0.008130520582199097,
          0.01801653765141964,
          0.028665555641055107,
          -0.018748771399259567,
          0.014246759936213493,
          -0.05776572972536087,
          0.05579792335629463,
          -0.021601639688014984,
          0.02487078681588173,
          0.07335508614778519,
          -0.01651095040142536,
          0.06812430918216705,
          -0.05436796694993973,
          0.003201708197593689,
          0.05818023160099983,
          -0.07392608374357224,
          0.04036061093211174,
          -0.018881499767303467,
          0.06022220477461815,
          0.018568208441138268,
          0.052405018359422684,
          -0.0064295618794858456,
          0.07676070183515549,
          0.06719453632831573,
          0.005916113965213299,
          -0.0499408058822155,
          -0.025403570383787155,
          0.045866258442401886,
          0.007251806557178497,
          -0.004974966868758202,
          0.06312438100576401,
          -0.035034190863370895,
          -0.063445083796978,
          -0.010861977934837341,
          -0.013935389928519726,
          0.04426882043480873,
          -0.04005170613527298,
          -0.04823538288474083,
          -0.07723111659288406,
          -0.0603099949657917,
          -0.006777241826057434,
          -0.02922957018017769,
          -0.045984454452991486,
          -0.055700309574604034,
          0.011956006288528442,
          0.0007805845234543085,
          0.08796337991952896,
          0.04008227959275246,
          -0.011178076267242432,
          -0.048968758434057236,
          -0.0873163491487503,
          -0.05622220039367676,
          -0.023406634107232094,
          0.05142149701714516,
          0.07742518186569214,
          0.05009875446557999,
          0.06254351884126663,
          0.044732071459293365,
          0.07324308902025223,
          0.07040068507194519,
          0.00007948257552925497,
          -0.03674841672182083,
          -0.021843373775482178,
          -0.027065111324191093,
          0.06138140708208084,
          -0.0004629567265510559,
          -0.05770384520292282,
          0.06131439656019211,
          0.06952843815088272,
          -0.09730415791273117,
          0.015215480700135231,
          0.010973240248858929,
          -0.025352615863084793,
          0.08825423568487167,
          -0.001026081619784236,
          0.05575358122587204,
          0.02337942272424698,
          -0.0384661890566349,
          0.030340053141117096,
          0.04570920020341873,
          0.05896693468093872,
          -0.03391115367412567,
          -0.016626819968223572,
          0.09086167812347412,
          0.07046081125736237,
          0.03262034431099892,
          0.07747798413038254,
          0.012088068760931492,
          -0.02103567309677601,
          -0.09083182364702225,
          -0.03682829067111015,
          0.054042913019657135,
          -0.06698152422904968,
          -0.024587120860815048,
          0.03852903097867966,
          0.025128111243247986,
          0.02232484519481659,
          -0.0026615485548973083
        ],
        [
          -0.07462390512228012,
          0.051563046872615814,
          0.011854320764541626,
          0.030521860346198082,
          -0.012581361457705498,
          -0.046000219881534576,
          -0.06338512152433395,
          0.001389634795486927,
          -0.04153573513031006,
          -0.02699708752334118,
          0.04290959984064102,
          -0.045718804001808167,
          -0.04480055719614029,
          -0.06640466302633286,
          -0.07759440690279007,
          -0.0042051407508552074,
          -0.04700620099902153,
          -0.04408019408583641,
          -0.007758182939141989,
          0.00982073973864317,
          -0.06806545704603195,
          -0.04916049912571907,
          -0.06193581596016884,
          0.03144819289445877,
          -0.010789148509502411,
          0.0748235359787941,
          -0.04076559841632843,
          0.05996701121330261,
          -0.036056894809007645,
          0.027969099581241608,
          -0.002778664231300354,
          0.06914534419775009,
          -0.017174754291772842,
          0.062493257224559784,
          0.043929945677518845,
          -0.012149879708886147,
          0.024012411013245583,
          0.01365673914551735,
          -0.05722326040267944,
          -0.0749088004231453,
          -0.026484310626983643,
          -0.03137530758976936,
          -0.041844580322504044,
          0.00006566941738128662,
          0.07886084914207458,
          0.04535474255681038,
          0.0012519055744633079,
          -0.011764448136091232,
          0.049441538751125336,
          -0.05260498821735382,
          0.04842540994286537,
          0.008457866497337818,
          0.02227768488228321,
          0.009487791918218136,
          -0.02158132754266262,
          0.07277099788188934,
          -0.04721010476350784,
          0.03452824056148529,
          0.06127237528562546,
          -0.02477228455245495,
          -0.06956534087657928,
          -0.038097430020570755,
          0.07730872929096222,
          -0.03848664090037346,
          0.0714450255036354,
          0.06257946789264679,
          -0.07670066505670547,
          -0.07328128814697266,
          0.03589698672294617,
          0.048341959714889526,
          0.03745041787624359,
          -0.03316684812307358,
          -0.060186732560396194,
          -0.009493514895439148,
          -0.048537109047174454,
          0.07652494311332703,
          0.04966478422284126,
          0.06789688766002655,
          -0.051864683628082275,
          0.0572645328938961,
          -0.007464043330401182,
          0.004242591559886932,
          0.013714258559048176,
          -0.03585141897201538,
          -0.07381125539541245,
          -0.06750209629535675,
          -0.044952794909477234,
          -0.062277428805828094,
          0.07714449614286423,
          -0.04721076413989067,
          -0.06232611835002899,
          0.028700321912765503,
          0.07883032411336899,
          -0.009940573945641518,
          -0.02996431291103363,
          -0.07442694902420044,
          0.043080203235149384,
          0.0011139214038848877,
          0.06305868178606033,
          -0.014242975041270256,
          0.07102110981941223,
          0.060590680688619614,
          0.01606515422463417,
          0.07145323604345322,
          0.046997569501399994,
          0.024094127118587494,
          -0.05449914187192917,
          0.0042979228310287,
          0.06337486952543259,
          0.019453980028629303,
          -0.013184924609959126,
          0.023787321522831917,
          -0.032926395535469055,
          -0.006635504309087992,
          0.03970366343855858,
          0.08126283437013626,
          0.030909327790141106,
          -0.07576360553503036,
          0.03743132948875427,
          0.07640789449214935,
          -0.07028164714574814,
          -0.07625687122344971,
          0.034121736884117126,
          -0.04251591116189957,
          -0.0010289070196449757,
          -0.0016687959432601929,
          -0.004709628410637379,
          0.07378476113080978
        ],
        [
          0.028837546706199646,
          0.048135124146938324,
          -0.015291854739189148,
          -0.023528967052698135,
          -0.01082165539264679,
          -0.04568294435739517,
          0.020442456007003784,
          0.0003312230110168457,
          0.07476191967725754,
          -0.05980315059423447,
          0.023872531950473785,
          0.07138989120721817,
          0.03424213081598282,
          -0.00035903602838516235,
          -0.008026957511901855,
          -0.0025399476289749146,
          0.053414709866046906,
          0.01637101173400879,
          0.0712316557765007,
          -0.043157827109098434,
          0.00012686103582382202,
          0.0725368782877922,
          0.019947491586208344,
          0.005197532474994659,
          0.057646967470645905,
          0.07497335225343704,
          0.05126146227121353,
          0.06393081694841385,
          0.008711494505405426,
          -0.0767892375588417,
          -0.07641451805830002,
          0.03188423812389374,
          0.02169414609670639,
          0.0009469166398048401,
          -0.038787174969911575,
          -0.017540976405143738,
          -0.058291997760534286,
          -0.06295831501483917,
          -0.032312363386154175,
          -0.023421484977006912,
          -0.05285482108592987,
          0.07597958296537399,
          0.03601336479187012,
          -0.06465870887041092,
          0.02444659173488617,
          -0.049190543591976166,
          -0.07428690046072006,
          -0.042026322335004807,
          -0.06370776891708374,
          -0.07170403748750687,
          0.04611695557832718,
          0.004479601979255676,
          -0.045422784984111786,
          -0.07296858727931976,
          -0.02346174791455269,
          -0.018213488161563873,
          -0.036743078380823135,
          0.07599394768476486,
          -0.013807334005832672,
          0.02689346671104431,
          0.063099704682827,
          -0.05895257741212845,
          -0.049977242946624756,
          0.010045722126960754,
          -0.060052111744880676,
          0.016979433596134186,
          0.010116234421730042,
          -0.0766512006521225,
          0.06317620724439621,
          0.06257864087820053,
          0.009863443672657013,
          0.03766973316669464,
          0.03940398991107941,
          0.0808490589261055,
          -0.07428183406591415,
          -0.061574116349220276,
          -0.02149508148431778,
          0.07294460386037827,
          -0.07997659593820572,
          0.06200557202100754,
          -0.06767482310533524,
          0.05158563703298569,
          0.06010507792234421,
          -0.06904385983943939,
          0.023221835494041443,
          -0.05835419148206711,
          0.03048006445169449,
          0.0049404725432395935,
          -0.030246607959270477,
          -0.02412557229399681,
          0.019037239253520966,
          -0.02911437302827835,
          0.028340086340904236,
          -0.04337472468614578,
          0.03342319279909134,
          -0.06609422713518143,
          0.011250019073486328,
          -0.03397103026509285,
          -0.014466501772403717,
          0.006871283054351807,
          -0.019031748175621033,
          0.02409178763628006,
          -0.02247031033039093,
          -0.0018989667296409607,
          0.04726118594408035,
          -0.051864176988601685,
          0.03392305225133896,
          -0.06425753235816956,
          -0.05603976547718048,
          -0.05512266606092453,
          0.04583127051591873,
          0.03798616677522659,
          -0.029241405427455902,
          0.03735155612230301,
          -0.06213250756263733,
          0.04352022707462311,
          0.012795515358448029,
          -0.010318741202354431,
          -0.031934380531311035,
          0.07150127738714218,
          -0.01118498295545578,
          -0.0009105056524276733,
          0.03964509814977646,
          0.006780758500099182,
          0.05097150057554245,
          0.05120367556810379,
          0.028742708265781403,
          -0.01087527722120285
        ],
        [
          0.02102775126695633,
          -0.017156653106212616,
          0.05056644231081009,
          -0.0315987803041935,
          -0.0348660834133625,
          0.01150243729352951,
          0.03035411238670349,
          -0.007227480411529541,
          0.05684974044561386,
          -0.03724761679768562,
          0.03207181394100189,
          0.06471560150384903,
          -0.07115183025598526,
          0.02675529569387436,
          -0.05484233796596527,
          -0.06505285948514938,
          0.020574577152729034,
          -0.061678968369960785,
          0.07112396508455276,
          -0.04390455409884453,
          -0.03591996431350708,
          -0.054884880781173706,
          0.01639193296432495,
          0.040866971015930176,
          -0.018071837723255157,
          0.057699836790561676,
          -0.059031397104263306,
          0.01643877476453781,
          -0.03592493385076523,
          0.055308617651462555,
          -0.07632970064878464,
          -0.04148167744278908,
          -0.040858231484889984,
          0.007403649389743805,
          -0.03713516145944595,
          -0.027066733688116074,
          0.029767461121082306,
          0.04354917258024216,
          0.029168404638767242,
          0.03734657168388367,
          0.07679363340139389,
          0.06202543526887894,
          0.06430334597826004,
          0.061896152794361115,
          -0.0411028228700161,
          0.029940426349639893,
          0.04616331309080124,
          -0.07013057917356491,
          0.04673313349485397,
          0.06658557802438736,
          0.04880451411008835,
          0.043376654386520386,
          0.07126399129629135,
          0.0680127665400505,
          -0.038205768913030624,
          0.01873958855867386,
          0.02453206479549408,
          -0.06935126334428787,
          -0.07750943303108215,
          0.023207001388072968,
          -0.06357996165752411,
          -0.012559451162815094,
          0.08082807809114456,
          0.018493354320526123,
          -0.023076683282852173,
          -0.07113288342952728,
          -0.008544959127902985,
          0.059077464044094086,
          -0.012543365359306335,
          -0.016268789768218994,
          -0.07609876245260239,
          -0.07601545006036758,
          0.04692947119474411,
          0.06622064858675003,
          0.06122668832540512,
          -0.07075684517621994,
          -0.07719618827104568,
          0.026717811822891235,
          -0.030847083777189255,
          0.06846600025892258,
          0.05500005930662155,
          -0.022917430847883224,
          0.057042770087718964,
          0.07364655286073685,
          -0.006416581571102142,
          0.07082699984312057,
          0.0014357715845108032,
          0.06371896713972092,
          0.07828136533498764,
          -0.018427446484565735,
          -0.005148723721504211,
          0.06084641069173813,
          0.01442643254995346,
          0.009671971201896667,
          0.046812258660793304,
          0.05468646436929703,
          0.07107099145650864,
          0.006926514208316803,
          0.044125981628894806,
          0.049719683825969696,
          0.0009412690997123718,
          0.039058610796928406,
          -0.06468208879232407,
          -0.07441084086894989,
          -0.035135697573423386,
          -0.05044453591108322,
          -0.037981368601322174,
          0.02929137647151947,
          0.00616154819726944,
          0.05884995311498642,
          0.008391216397285461,
          -0.04013906046748161,
          0.02525651454925537,
          -0.07811853289604187,
          -0.02335910126566887,
          -0.027663301676511765,
          -0.0050763413310050964,
          0.07728549093008041,
          -0.016380392014980316,
          0.0061700791120529175,
          0.06450655311346054,
          0.0281062051653862,
          -0.05120120197534561,
          -0.01830112934112549,
          -0.008663460612297058,
          0.049032337963581085,
          -0.03856122866272926,
          0.05418912321329117
        ],
        [
          0.03549181669950485,
          -0.0005252882838249207,
          -0.0787506252527237,
          0.014361687004566193,
          -0.0329006165266037,
          -0.0008367523550987244,
          -0.001552574336528778,
          0.005153000354766846,
          -0.03992254659533501,
          -0.05353522300720215,
          0.03989870101213455,
          -0.04472349211573601,
          -0.0677645355463028,
          0.008424341678619385,
          0.0803995206952095,
          -0.008001819252967834,
          0.044794730842113495,
          0.019542068243026733,
          -0.05412132665514946,
          -0.021048597991466522,
          -0.05292515456676483,
          0.0745072141289711,
          -0.03611663356423378,
          -0.04939233884215355,
          -0.03382421284914017,
          0.018957585096359253,
          0.032149747014045715,
          -0.028302587568759918,
          0.05659361928701401,
          0.07978013902902603,
          0.05121801048517227,
          0.02141507714986801,
          -0.033765386790037155,
          -0.006782464683055878,
          -0.021636154502630234,
          -0.07527290284633636,
          0.05449121445417404,
          0.08052835613489151,
          0.02558710426092148,
          -0.04229193180799484,
          -0.040906671434640884,
          0.03357372432947159,
          0.03738197684288025,
          -0.01871407777070999,
          -0.004987075924873352,
          0.007783897221088409,
          0.048287637531757355,
          0.043686650693416595,
          0.058001600205898285,
          0.03188342601060867,
          -0.07729823887348175,
          -0.07373024523258209,
          -0.01331782341003418,
          -0.06119726598262787,
          0.03797529637813568,
          0.019091911613941193,
          -0.00451340526342392,
          0.037027426064014435,
          0.02985742688179016,
          0.005517818033695221,
          0.04538964480161667,
          -0.06916296482086182,
          0.03462690860033035,
          0.07151053100824356,
          -0.0021909698843955994,
          0.03954281657934189,
          0.036081261932849884,
          -0.013376034796237946,
          -0.03418392688035965,
          0.04176533222198486,
          0.004091270267963409,
          0.038913995027542114,
          -0.03273098170757294,
          0.005238398909568787,
          0.004997618496417999,
          0.04256806522607803,
          -0.016318202018737793,
          -0.06138133257627487,
          -0.049409471452236176,
          0.002543047070503235,
          0.05449681729078293,
          0.06289840489625931,
          0.006356731057167053,
          0.0758146420121193,
          0.049659259617328644,
          0.01923608034849167,
          0.020602717995643616,
          0.0031936615705490112,
          -0.014976061880588531,
          -0.05121137574315071,
          -0.040790583938360214,
          0.022304832935333252,
          0.023955412209033966,
          0.020745180547237396,
          -0.07104063779115677,
          0.06552501767873764,
          0.026422560214996338,
          0.032517969608306885,
          -0.03254958987236023,
          -0.06440955400466919,
          -0.016343452036380768,
          -0.052073538303375244,
          -0.007168807089328766,
          0.024165600538253784,
          -0.02130935713648796,
          0.04836270958185196,
          -0.0348207950592041,
          0.020625784993171692,
          0.010148994624614716,
          -0.021751217544078827,
          0.06963976472616196,
          -0.07211246341466904,
          0.024513304233551025,
          0.05525917559862137,
          -0.05680681765079498,
          0.07994689792394638,
          -0.018826358020305634,
          0.04775375872850418,
          0.009790286421775818,
          -0.08019113540649414,
          -0.0009280070662498474,
          0.07135500758886337,
          -0.03795698285102844,
          -0.00798969715833664,
          -0.0051956623792648315,
          -0.035129182040691376,
          -0.05185752734541893,
          0.011229634284973145
        ],
        [
          0.05289208143949509,
          0.013115137815475464,
          -0.020219430327415466,
          -0.010344445705413818,
          -0.02489444613456726,
          0.009322993457317352,
          0.03721454739570618,
          0.014082476496696472,
          0.07004902511835098,
          -0.036308180540800095,
          -0.013349264860153198,
          -0.038139961659908295,
          -0.04442431032657623,
          0.06101948767900467,
          0.02096615731716156,
          -0.03952042758464813,
          -0.054200999438762665,
          0.021351434290409088,
          0.04791291803121567,
          0.03066350519657135,
          -0.05105487257242203,
          -0.015221700072288513,
          0.042612411081790924,
          -0.0765608549118042,
          -0.035670459270477295,
          0.018401458859443665,
          0.06134911626577377,
          -0.0405648872256279,
          -0.050814226269721985,
          0.00898173451423645,
          -0.011997886002063751,
          -0.05045989155769348,
          0.0673995241522789,
          -0.059880271553993225,
          0.0688670352101326,
          -0.05830555409193039,
          0.021735839545726776,
          -0.007066778838634491,
          0.06255421787500381,
          0.024265699088573456,
          0.05350591987371445,
          -0.03885306045413017,
          -0.07963670790195465,
          0.07356875389814377,
          0.00372420996427536,
          0.06939589232206345,
          -0.07357126474380493,
          -0.03320935368537903,
          0.06874542683362961,
          -0.0445655956864357,
          -0.08031141757965088,
          0.03828592598438263,
          -0.043771352618932724,
          0.053459398448467255,
          -0.04962693154811859,
          -0.023678995668888092,
          0.011507876217365265,
          -0.0610649548470974,
          0.05966741591691971,
          -0.051618561148643494,
          0.06123054772615433,
          -0.007003426551818848,
          0.07808279246091843,
          -0.04917534440755844,
          0.058234311640262604,
          -0.020682930946350098,
          0.008218452334403992,
          -0.07049143314361572,
          0.028499066829681396,
          0.05979498475790024,
          -0.008493073284626007,
          -0.005657300353050232,
          -0.0435904823243618,
          -0.026661869138479233,
          0.021541185677051544,
          0.04727094620466232,
          -0.014824278652668,
          -0.028304483741521835,
          0.003190644085407257,
          0.03337245434522629,
          -0.01534387469291687,
          0.008514270186424255,
          -0.07903160899877548,
          -0.07084143161773682,
          -0.032414086163043976,
          -0.0016418397426605225,
          0.011778280138969421,
          -0.06756086647510529,
          0.03859852999448776,
          -0.0390375480055809,
          0.07935396581888199,
          -0.039179086685180664,
          -0.02616151049733162,
          -0.03659249097108841,
          -0.031420715153217316,
          0.04546377807855606,
          0.07477662712335587,
          0.01978706568479538,
          0.05143166333436966,
          0.05256109684705734,
          -0.02159254625439644,
          -0.07503356784582138,
          -0.03530653193593025,
          0.04090537875890732,
          0.07563330978155136,
          -0.05904151126742363,
          0.05306132882833481,
          -0.06408403068780899,
          0.003908872604370117,
          -0.06104942411184311,
          0.005001641809940338,
          -0.02863437682390213,
          0.07663813978433609,
          0.06905806809663773,
          0.039423927664756775,
          0.06437674909830093,
          -0.015255831182003021,
          -0.0695110335946083,
          -0.012770511209964752,
          -0.061198778450489044,
          -0.02369529753923416,
          -0.040450986474752426,
          -0.041561875492334366,
          -0.057989701628685,
          0.0542222335934639,
          -0.07512708753347397,
          0.014700450003147125,
          -0.0630219504237175
        ],
        [
          -0.006355106830596924,
          0.024454265832901,
          -0.000965021550655365,
          0.08035653084516525,
          -0.014243699610233307,
          -0.027022063732147217,
          0.012172244489192963,
          -0.048284951597452164,
          -0.03330743685364723,
          -0.046387843787670135,
          -0.07428964227437973,
          0.02330683171749115,
          -0.0018310099840164185,
          -0.06441659480333328,
          0.0265335813164711,
          -0.051166143268346786,
          0.008102692663669586,
          -0.03658796846866608,
          0.0032582730054855347,
          0.05402297526597977,
          0.07071679085493088,
          0.08090900629758835,
          -0.06812484562397003,
          -0.008681774139404297,
          0.06260683387517929,
          -0.009726375341415405,
          -0.007486574351787567,
          -0.05642525106668472,
          -0.053769271820783615,
          -0.002155117690563202,
          -0.04200392961502075,
          -0.06463147699832916,
          0.03752320259809494,
          0.052297838032245636,
          0.05813635140657425,
          0.06046842783689499,
          -0.010500483214855194,
          0.01939525455236435,
          -0.07864395529031754,
          -0.033625610172748566,
          0.0006235837936401367,
          -0.011933431029319763,
          -0.003324560821056366,
          0.033450424671173096,
          0.0458136722445488,
          -0.07674961537122726,
          0.01823895424604416,
          -0.031101632863283157,
          -0.050710245966911316,
          0.06515402346849442,
          0.048850737512111664,
          0.06624370068311691,
          -0.04617840796709061,
          0.006798475980758667,
          0.03765002638101578,
          0.020297110080718994,
          0.07696609944105148,
          -0.0335342176258564,
          0.005874030292034149,
          -0.038763292133808136,
          -0.07440629601478577,
          -0.06368464231491089,
          0.02766837179660797,
          -0.04379722848534584,
          -0.03014983981847763,
          -0.03345276415348053,
          -0.07346566021442413,
          -0.06961788237094879,
          0.06726781278848648,
          -0.07405047118663788,
          0.07220976799726486,
          -0.013822957873344421,
          -0.05374005436897278,
          -0.07800153642892838,
          -0.05370570719242096,
          -0.014271162450313568,
          -0.07620367407798767,
          0.05665799230337143,
          -0.03278100863099098,
          0.06537803262472153,
          0.03970617055892944,
          -0.022360585629940033,
          -0.027493435889482498,
          -0.011493079364299774,
          0.007743574678897858,
          -0.02770690992474556,
          0.03792434185743332,
          0.020186863839626312,
          0.025614291429519653,
          -0.040060855448246,
          0.07329130917787552,
          -0.0011158809065818787,
          -0.01273231953382492,
          0.030039265751838684,
          0.020495139062404633,
          0.06613781303167343,
          -0.002993665635585785,
          -0.0077039748430252075,
          0.07194281369447708,
          -0.0411602184176445,
          -0.05944539234042168,
          0.0079430490732193,
          -0.059265583753585815,
          0.03547481447458267,
          -0.06152932345867157,
          -0.05688629671931267,
          -0.04452436789870262,
          0.048736147582530975,
          0.004481323063373566,
          0.008417345583438873,
          -0.07671685516834259,
          -0.05087517946958542,
          -0.06410373747348785,
          0.03716517984867096,
          0.01501040905714035,
          -0.018850434571504593,
          0.0024666786193847656,
          0.0533997043967247,
          -0.017923064529895782,
          -0.003810666501522064,
          -0.01293962448835373,
          0.07262874394655228,
          0.04401662200689316,
          0.03984279930591583,
          0.049283467233181,
          0.053279049694538116,
          -0.010340556502342224,
          -0.020879969000816345
        ],
        [
          0.018332339823246002,
          0.059440381824970245,
          -0.013586066663265228,
          -0.03380541875958443,
          -0.025256726890802383,
          -0.07626909762620926,
          -0.018061451613903046,
          -0.013435959815979004,
          0.05136502534151077,
          0.003158003091812134,
          -0.013335458934307098,
          0.06033138185739517,
          -0.028489764779806137,
          0.07864781469106674,
          0.03765687346458435,
          -0.04450878128409386,
          0.051368989050388336,
          -0.021973956376314163,
          0.042418330907821655,
          0.060303397476673126,
          -0.023649446666240692,
          -0.009654201567173004,
          -0.037768587470054626,
          -0.01070481538772583,
          -0.03835510089993477,
          0.06750548630952835,
          -0.05329989269375801,
          -0.0033531486988067627,
          -0.04561980441212654,
          -0.06630538403987885,
          0.024723589420318604,
          -0.07299768924713135,
          -0.022404037415981293,
          0.07337585836648941,
          -0.014916501939296722,
          0.056513749063014984,
          -0.00804794579744339,
          -0.0005010366439819336,
          0.04051782190799713,
          0.020590297877788544,
          -0.03317568451166153,
          0.024299077689647675,
          0.014460429549217224,
          -0.000982634723186493,
          0.009124502539634705,
          -0.05514241009950638,
          -0.02836766093969345,
          0.03717917948961258,
          0.02357814460992813,
          0.05891311913728714,
          -0.022181648761034012,
          0.007807277143001556,
          -0.01735875755548477,
          0.03718515485525131,
          -0.07826177030801773,
          0.05249585956335068,
          0.01004963368177414,
          -0.035719193518161774,
          0.033936068415641785,
          0.026416003704071045,
          -0.07918542623519897,
          0.04791169613599777,
          0.006964728236198425,
          0.07893211394548416,
          -0.05693205073475838,
          -0.019476182758808136,
          -0.03440231457352638,
          0.0684288963675499,
          -0.07783621549606323,
          -0.0795544981956482,
          0.04841298609972,
          -0.051526568830013275,
          0.009353585541248322,
          -0.042938124388456345,
          0.002820529043674469,
          0.00538673996925354,
          -0.04251188784837723,
          -0.008449196815490723,
          0.06328491121530533,
          -0.04527111351490021,
          0.07141075283288956,
          0.07887575775384903,
          -0.08000596612691879,
          -0.021919962018728256,
          -0.06090392544865608,
          -0.0168912336230278,
          -0.07834790647029877,
          0.004850663244724274,
          -0.012009374797344208,
          -0.052176106721162796,
          0.040544234216213226,
          -0.04643214866518974,
          0.04537714272737503,
          -0.052041105926036835,
          -0.02574732154607773,
          -0.04344254359602928,
          -0.07610036432743073,
          -0.0679236352443695,
          -0.02704031765460968,
          -0.017767317593097687,
          0.06982240825891495,
          0.03458517789840698,
          0.012794643640518188,
          0.051801808178424835,
          0.010832056403160095,
          0.0018441379070281982,
          -0.04406687989830971,
          0.06908858567476273,
          0.01771111786365509,
          -0.07631877064704895,
          -0.041792288422584534,
          -0.039697855710983276,
          0.05270390957593918,
          0.07352050393819809,
          -0.05643503740429878,
          -0.003589846193790436,
          -0.01745745539665222,
          0.01372210681438446,
          0.06757154315710068,
          0.01940236985683441,
          -0.06035647541284561,
          -0.053766604512929916,
          0.03144490718841553,
          -0.030408084392547607,
          -0.052270688116550446,
          -0.005329206585884094,
          0.08013398200273514,
          -0.038384608924388885
        ],
        [
          -0.057386286556720734,
          0.06475294381380081,
          0.03951001912355423,
          0.06665139645338058,
          -0.03997477889060974,
          0.014746032655239105,
          0.06145661324262619,
          -0.014935493469238281,
          -0.04235735535621643,
          0.003507368266582489,
          -0.05407990515232086,
          -0.08098800480365753,
          0.04705440253019333,
          -0.008771851658821106,
          0.08084101229906082,
          0.042957477271556854,
          -0.031910475343465805,
          0.05076230317354202,
          0.025974221527576447,
          -0.05722765624523163,
          -0.04480231553316116,
          0.026455335319042206,
          0.06476867944002151,
          0.018088214099407196,
          0.05624406784772873,
          0.04619283229112625,
          0.007686004042625427,
          -0.06787480413913727,
          0.044705696403980255,
          0.04560234397649765,
          0.05759824067354202,
          0.06613833457231522,
          0.03767843544483185,
          0.001747041940689087,
          0.03238378465175629,
          -0.06001183018088341,
          -0.018754474818706512,
          0.05274065583944321,
          0.061525650322437286,
          -0.027122333645820618,
          -0.02665570005774498,
          0.032311394810676575,
          0.033235497772693634,
          -0.027599584311246872,
          0.0427703857421875,
          -0.07228685170412064,
          -0.007563598453998566,
          0.05653279274702072,
          -0.021853208541870117,
          0.039442941546440125,
          -0.056459926068782806,
          -0.026837073266506195,
          0.0071611106395721436,
          -0.051960889250040054,
          0.07350160926580429,
          0.031555891036987305,
          -0.05604345723986626,
          -0.0449543334543705,
          0.03053562343120575,
          0.04197600483894348,
          0.03873061388731003,
          0.02739005535840988,
          -0.0435863621532917,
          -0.059835076332092285,
          0.038637906312942505,
          -0.05917802080512047,
          -0.055656321346759796,
          -0.03648535907268524,
          0.026094868779182434,
          0.06071465462446213,
          -0.02982364222407341,
          -0.06807845085859299,
          0.022003717720508575,
          0.06694496423006058,
          -0.020391251891851425,
          0.07888709753751755,
          -0.01992040127515793,
          0.044043444097042084,
          -0.005449146032333374,
          -0.021351125091314316,
          0.01530291885137558,
          0.07392530888319016,
          0.014110386371612549,
          0.016734376549720764,
          -0.02335911989212036,
          -0.06767836213111877,
          -0.07286292314529419,
          -0.051377296447753906,
          0.08037968724966049,
          -0.06493154913187027,
          -0.0008786320686340332,
          -0.025328975170850754,
          -0.0750151202082634,
          -0.008360758423805237,
          -0.012916184961795807,
          -0.022397581487894058,
          -0.031335026025772095,
          0.07335127145051956,
          0.05373334139585495,
          0.06443651765584946,
          -0.07701680809259415,
          -0.043083470314741135,
          0.001530662178993225,
          -0.07127087563276291,
          0.024538159370422363,
          -0.01033734530210495,
          -0.0454692542552948,
          0.03988979011774063,
          -0.05602419376373291,
          0.04469569772481918,
          -0.06469361484050751,
          0.012629322707653046,
          -0.04248084872961044,
          -0.025958437472581863,
          0.017575591802597046,
          0.021810993552207947,
          0.031873755156993866,
          0.0021446198225021362,
          -0.003752194344997406,
          0.021197542548179626,
          -0.03490978851914406,
          0.047116391360759735,
          -0.003169216215610504,
          0.024081945419311523,
          -0.003214120864868164,
          -0.01506861299276352,
          0.06069105118513107,
          0.07761078327894211
        ],
        [
          0.05332914739847183,
          0.025905124843120575,
          -0.029370836913585663,
          0.030244775116443634,
          -0.0235934816300869,
          0.0564129576086998,
          -0.0473187118768692,
          0.040866605937480927,
          -0.038761068135499954,
          0.06480611115694046,
          0.027033470571041107,
          -0.0239042267203331,
          -0.013703659176826477,
          -0.00289279967546463,
          -0.07979080826044083,
          -0.05280282348394394,
          -0.06832683831453323,
          -0.06134781613945961,
          0.03766406327486038,
          0.054445452988147736,
          -0.05222168564796448,
          0.07577314227819443,
          0.04722093790769577,
          -0.03168727457523346,
          0.06984586268663406,
          0.023478783667087555,
          -0.014214657247066498,
          -0.036074575036764145,
          -0.04388825222849846,
          0.07187392562627792,
          -0.0377642959356308,
          0.026680782437324524,
          0.018945753574371338,
          -0.060537561774253845,
          -0.026718296110630035,
          -0.041622769087553024,
          -0.054135192185640335,
          -0.04109365493059158,
          0.04435961693525314,
          -0.0659971535205841,
          0.08071532100439072,
          -0.059111088514328,
          -0.05708892643451691,
          -0.00966576486825943,
          0.004005268216133118,
          0.06467720121145248,
          -0.04454784467816353,
          0.0777183249592781,
          -0.07588393241167068,
          -0.017063766717910767,
          -0.06996465474367142,
          0.07131410390138626,
          -0.07647727429866791,
          -0.028909657150506973,
          -0.025973442941904068,
          0.057489462196826935,
          0.004831284284591675,
          -0.04502573236823082,
          0.07731723040342331,
          0.021763689815998077,
          0.07086677104234695,
          -0.009440243244171143,
          0.021733447909355164,
          0.07713543623685837,
          0.03879023343324661,
          0.03554754704236984,
          0.010521255433559418,
          0.058058880269527435,
          0.03386656194925308,
          -0.04154682904481888,
          0.016858339309692383,
          -0.01305234432220459,
          0.07047087699174881,
          0.0020063892006874084,
          0.020925164222717285,
          -0.048572838306427,
          -0.02069436013698578,
          0.05955421179533005,
          0.05704968422651291,
          -0.044042572379112244,
          0.050111137330532074,
          0.035434938967227936,
          -0.004968993365764618,
          -0.02056780830025673,
          -0.05112943798303604,
          0.01712069660425186,
          -0.01276405155658722,
          -0.06909768283367157,
          0.060991279780864716,
          0.03937353193759918,
          0.028248034417629242,
          -0.0436050221323967,
          0.04810100048780441,
          -0.051830608397722244,
          -0.03208301216363907,
          0.06388551741838455,
          -0.031514737755060196,
          0.022870808839797974,
          -0.06209220737218857,
          -0.07568643242120743,
          -0.07997757941484451,
          0.030108414590358734,
          -0.06659375876188278,
          0.03879231959581375,
          0.06032489985227585,
          -0.05018039420247078,
          0.010080128908157349,
          0.015070721507072449,
          -0.04040020331740379,
          0.05338331311941147,
          -0.00984068214893341,
          -0.07479076087474823,
          0.02018895000219345,
          -0.007737487554550171,
          -0.000334128737449646,
          -0.021781325340270996,
          0.05553232878446579,
          0.03168708086013794,
          -0.008085422217845917,
          0.03861771523952484,
          0.05902329832315445,
          -0.05152295529842377,
          -0.039825256913900375,
          -0.00204380601644516,
          -0.006128266453742981,
          0.030319221317768097,
          0.007887393236160278,
          -0.0055946484208106995
        ],
        [
          0.03541063517332077,
          0.04219713807106018,
          -0.03295735642313957,
          -0.01878276839852333,
          -0.042698271572589874,
          -0.010252602398395538,
          -0.039995141327381134,
          0.056083522737026215,
          0.03338610380887985,
          -0.07007171213626862,
          0.04738234728574753,
          -0.07490609586238861,
          0.051804669201374054,
          0.06151845306158066,
          -0.039114031940698624,
          -0.0014758184552192688,
          0.039614856243133545,
          -0.02895904704928398,
          0.005380786955356598,
          0.009194590151309967,
          -0.03345593437552452,
          -0.07989603281021118,
          -0.0043337345123291016,
          -0.042689818888902664,
          0.015253432095050812,
          0.07927688211202621,
          -0.07131057977676392,
          -0.012855038046836853,
          0.03163842856884003,
          -0.010160401463508606,
          -0.017725057899951935,
          0.027604997158050537,
          0.01093793660402298,
          -0.07465419173240662,
          -0.00410180538892746,
          0.019083172082901,
          -0.021677732467651367,
          -0.0038199126720428467,
          0.06766825169324875,
          -0.0689874142408371,
          0.03848432004451752,
